digraph Tree {
0 [label="Smoothed RSSI <= -66.4692\ngini = 0.0648054270014\nsamples = 7755", shape="box"] ;
1 [label="Smoothed RSSI <= -70.9618\ngini = 0.0294864805502\nsamples = 7483", shape="box"] ;
0 -> 1 ;
2 [label="gini = 0.0089\nsamples = 6933\nvalue = [ 6902.    31.]", shape="box"] ;
1 -> 2 ;
3 [label="gini = 0.2512\nsamples = 550\nvalue = [ 469.   81.]", shape="box"] ;
1 -> 3 ;
4 [label="Smoothed RSSI <= -63.2522\ngini = 0.496107266436\nsamples = 272", shape="box"] ;
0 -> 4 ;
5 [label="gini = 0.4715\nsamples = 176\nvalue = [ 109.   67.]", shape="box"] ;
4 -> 5 ;
6 [label="gini = 0.2637\nsamples = 96\nvalue = [ 15.  81.]", shape="box"] ;
4 -> 6 ;
}