digraph Tree {
0 [label="RSSI <= -61.5000\ngini = 0.0640992766991\nsamples = 7753", shape="box"] ;
1 [label="RSSI <= -70.5000\ngini = 0.0386260808302\nsamples = 7563", shape="box"] ;
0 -> 1 ;
2 [label="gini = 0.0072\nsamples = 6655\nvalue = [ 6631.    24.]", shape="box"] ;
1 -> 2 ;
3 [label="gini = 0.2374\nsamples = 908\nvalue = [ 783.  125.]", shape="box"] ;
1 -> 3 ;
4 [label="RSSI <= -57.5000\ngini = 0.490637119114\nsamples = 190", shape="box"] ;
0 -> 4 ;
5 [label="gini = 0.4540\nsamples = 89\nvalue = [ 58.  31.]", shape="box"] ;
4 -> 5 ;
6 [label="gini = 0.3623\nsamples = 101\nvalue = [ 24.  77.]", shape="box"] ;
4 -> 6 ;
}