digraph Tree {
0 [label="Smoothed RSSI <= -67.7686\ngini = 0.0690227108119\nsamples = 7767", shape="box"] ;
1 [label="Smoothed RSSI <= -70.9618\ngini = 0.026472901814\nsamples = 7379", shape="box"] ;
0 -> 1 ;
2 [label="gini = 0.0088\nsamples = 6975\nvalue = [ 6944.    31.]", shape="box"] ;
1 -> 2 ;
3 [label="gini = 0.2800\nsamples = 404\nvalue = [ 336.   68.]", shape="box"] ;
1 -> 3 ;
4 [label="Smoothed RSSI <= -63.2522\ngini = 0.497010840684\nsamples = 388", shape="box"] ;
0 -> 4 ;
5 [label="gini = 0.4460\nsamples = 292\nvalue = [ 194.   98.]", shape="box"] ;
4 -> 5 ;
6 [label="gini = 0.2637\nsamples = 96\nvalue = [ 15.  81.]", shape="box"] ;
4 -> 6 ;
}