digraph Tree {
0 [label="RSSI <= -59.5000\ngini = 0.0651189399771\nsamples = 7746", shape="box"] ;
1 [label="RSSI <= -68.5000\ngini = 0.0411976199021\nsamples = 7604", shape="box"] ;
0 -> 1 ;
2 [label="gini = 0.0143\nsamples = 6945\nvalue = [ 6895.    50.]", shape="box"] ;
1 -> 2 ;
3 [label="gini = 0.2781\nsamples = 659\nvalue = [ 549.  110.]", shape="box"] ;
1 -> 3 ;
4 [label="Acceleration Magnitude <= 0.0674\ngini = 0.41073199762\nsamples = 142", shape="box"] ;
0 -> 4 ;
5 [label="gini = 0.2211\nsamples = 79\nvalue = [ 10.  69.]", shape="box"] ;
4 -> 5 ;
6 [label="gini = 0.4999\nsamples = 63\nvalue = [ 31.  32.]", shape="box"] ;
4 -> 6 ;
}