digraph Tree {
0 [label="Smoothed RSSI <= -66.4692\ngini = 0.0653434236797\nsamples = 7748", shape="box"] ;
1 [label="Smoothed RSSI <= -70.5800\ngini = 0.0340925707384\nsamples = 7494", shape="box"] ;
0 -> 1 ;
2 [label="gini = 0.0100\nsamples = 6978\nvalue = [ 6943.    35.]", shape="box"] ;
1 -> 2 ;
3 [label="gini = 0.3004\nsamples = 516\nvalue = [ 421.   95.]", shape="box"] ;
1 -> 3 ;
4 [label="Smoothed RSSI <= -63.2522\ngini = 0.49922499845\nsamples = 254", shape="box"] ;
0 -> 4 ;
5 [label="gini = 0.4702\nsamples = 172\nvalue = [ 107.   65.]", shape="box"] ;
4 -> 5 ;
6 [label="gini = 0.2989\nsamples = 82\nvalue = [ 15.  67.]", shape="box"] ;
4 -> 6 ;
}