digraph Tree {
0 [label="RSSI <= -61.5000\ngini = 0.0657232009424\nsamples = 7731", shape="box"] ;
1 [label="RSSI <= -70.5000\ngini = 0.0404549103718\nsamples = 7553", shape="box"] ;
0 -> 1 ;
2 [label="gini = 0.0093\nsamples = 6646\nvalue = [ 6615.    31.]", shape="box"] ;
1 -> 2 ;
3 [label="gini = 0.2376\nsamples = 907\nvalue = [ 782.  125.]", shape="box"] ;
1 -> 3 ;
4 [label="Acceleration Magnitude <= -0.0687\ngini = 0.479548036864\nsamples = 178", shape="box"] ;
0 -> 4 ;
5 [label="gini = 0.3648\nsamples = 50\nvalue = [ 38.  12.]", shape="box"] ;
4 -> 5 ;
6 [label="gini = 0.3827\nsamples = 128\nvalue = [ 33.  95.]", shape="box"] ;
4 -> 6 ;
}