digraph Tree {
0 [label="Smoothed RSSI <= -66.4692\ngini = 0.0657232009424\nsamples = 7731", shape="box"] ;
1 [label="Smoothed RSSI <= -70.5800\ngini = 0.0341462832548\nsamples = 7482", shape="box"] ;
0 -> 1 ;
2 [label="gini = 0.0100\nsamples = 6968\nvalue = [ 6933.    35.]", shape="box"] ;
1 -> 2 ;
3 [label="gini = 0.3013\nsamples = 514\nvalue = [ 419.   95.]", shape="box"] ;
1 -> 3 ;
4 [label="Smoothed RSSI <= -63.4893\ngini = 0.497669392429\nsamples = 249", shape="box"] ;
0 -> 4 ;
5 [label="gini = 0.4742\nsamples = 163\nvalue = [ 100.   63.]", shape="box"] ;
4 -> 5 ;
6 [label="gini = 0.3029\nsamples = 86\nvalue = [ 16.  70.]", shape="box"] ;
4 -> 6 ;
}