digraph Tree {
0 [label="RSSI <= -59.5000\ngini = 0.0648861945127\nsamples = 7745", shape="box"] ;
1 [label="RSSI <= -70.5000\ngini = 0.0407040587569\nsamples = 7602", shape="box"] ;
0 -> 1 ;
2 [label="gini = 0.0075\nsamples = 6635\nvalue = [ 6610.    25.]", shape="box"] ;
1 -> 2 ;
3 [label="gini = 0.2372\nsamples = 967\nvalue = [ 834.  133.]", shape="box"] ;
1 -> 3 ;
4 [label="Acceleration Magnitude <= 0.0674\ngini = 0.409017555871\nsamples = 143", shape="box"] ;
0 -> 4 ;
5 [label="gini = 0.2188\nsamples = 80\nvalue = [ 10.  70.]", shape="box"] ;
4 -> 5 ;
6 [label="gini = 0.4999\nsamples = 63\nvalue = [ 31.  32.]", shape="box"] ;
4 -> 6 ;
}