digraph Tree {
0 [label="RSSI <= -59.5000\ngini = 0.0694792151003\nsamples = 7714", shape="box"] ;
1 [label="RSSI <= -70.5000\ngini = 0.0454123890107\nsamples = 7571", shape="box"] ;
0 -> 1 ;
2 [label="gini = 0.0093\nsamples = 6654\nvalue = [ 6623.    31.]", shape="box"] ;
1 -> 2 ;
3 [label="gini = 0.2662\nsamples = 917\nvalue = [ 772.  145.]", shape="box"] ;
1 -> 3 ;
4 [label="RSSI <= -52.5000\ngini = 0.409017555871\nsamples = 143", shape="box"] ;
0 -> 4 ;
5 [label="gini = 0.4624\nsamples = 113\nvalue = [ 41.  72.]", shape="box"] ;
4 -> 5 ;
6 [label="gini = 0.0000\nsamples = 30\nvalue = [  0.  30.]", shape="box"] ;
4 -> 6 ;
}