digraph Tree {
0 [label="Smoothed RSSI <= -66.4692\ngini = 0.0692372943736\nsamples = 7742", shape="box"] ;
1 [label="Smoothed RSSI <= -70.5800\ngini = 0.0342001652303\nsamples = 7470", shape="box"] ;
0 -> 1 ;
2 [label="gini = 0.0100\nsamples = 6957\nvalue = [ 6922.    35.]", shape="box"] ;
1 -> 2 ;
3 [label="gini = 0.3018\nsamples = 513\nvalue = [ 418.   95.]", shape="box"] ;
1 -> 3 ;
4 [label="Smoothed RSSI <= -63.2522\ngini = 0.496107266436\nsamples = 272", shape="box"] ;
0 -> 4 ;
5 [label="gini = 0.4715\nsamples = 176\nvalue = [ 109.   67.]", shape="box"] ;
4 -> 5 ;
6 [label="gini = 0.2637\nsamples = 96\nvalue = [ 15.  81.]", shape="box"] ;
4 -> 6 ;
}