digraph Tree {
0 [label="X[1] <= -59.5000\ngini = 0.0691427136987\nsamples = 7753", shape="box"] ;
1 [label="X[1] <= -70.5000\ngini = 0.0451851685572\nsamples = 7610", shape="box"] ;
0 -> 1 ;
2 [label="gini = 0.0093\nsamples = 6653\nvalue = [ 6622.    31.]", shape="box"] ;
1 -> 2 ;
3 [label="gini = 0.2571\nsamples = 957\nvalue = [ 812.  145.]", shape="box"] ;
1 -> 3 ;
4 [label="X[0] <= -0.0648\ngini = 0.409017555871\nsamples = 143", shape="box"] ;
0 -> 4 ;
5 [label="gini = 0.3270\nsamples = 34\nvalue = [ 27.   7.]", shape="box"] ;
4 -> 5 ;
6 [label="gini = 0.2239\nsamples = 109\nvalue = [ 14.  95.]", shape="box"] ;
4 -> 6 ;
}