digraph Tree {
0 [label="Smoothed RSSI <= -67.7686\ngini = 0.0694792151003\nsamples = 7714", shape="box"] ;
1 [label="Smoothed RSSI <= -70.9618\ngini = 0.0266510328239\nsamples = 7329", shape="box"] ;
0 -> 1 ;
2 [label="gini = 0.0089\nsamples = 6921\nvalue = [ 6890.    31.]", shape="box"] ;
1 -> 2 ;
3 [label="gini = 0.2778\nsamples = 408\nvalue = [ 340.   68.]", shape="box"] ;
1 -> 3 ;
4 [label="Smoothed RSSI <= -63.2522\ngini = 0.497540900658\nsamples = 385", shape="box"] ;
0 -> 4 ;
5 [label="gini = 0.4482\nsamples = 289\nvalue = [ 191.   98.]", shape="box"] ;
4 -> 5 ;
6 [label="gini = 0.2637\nsamples = 96\nvalue = [ 15.  81.]", shape="box"] ;
4 -> 6 ;
}