digraph Tree {
0 [label="Smoothed RSSI <= -66.4692\ngini = 0.0657328225836\nsamples = 7818", shape="box"] ;
1 [label="Smoothed RSSI <= -70.9618\ngini = 0.0337781963673\nsamples = 7565", shape="box"] ;
0 -> 1 ;
2 [label="gini = 0.0088\nsamples = 7016\nvalue = [ 6985.    31.]", shape="box"] ;
1 -> 2 ;
3 [label="gini = 0.2956\nsamples = 549\nvalue = [ 450.   99.]", shape="box"] ;
1 -> 3 ;
4 [label="Smoothed RSSI <= -63.4893\ngini = 0.497180084051\nsamples = 253", shape="box"] ;
0 -> 4 ;
5 [label="gini = 0.4721\nsamples = 165\nvalue = [ 102.   63.]", shape="box"] ;
4 -> 5 ;
6 [label="gini = 0.2828\nsamples = 88\nvalue = [ 15.  73.]", shape="box"] ;
4 -> 6 ;
}