digraph Tree {
0 [label="Smoothed RSSI <= -66.4692\ngini = 0.0700826446281\nsamples = 7645", shape="box"] ;
1 [label="Smoothed RSSI <= -70.5800\ngini = 0.0346328066648\nsamples = 7375", shape="box"] ;
0 -> 1 ;
2 [label="gini = 0.0101\nsamples = 6885\nvalue = [ 6850.    35.]", shape="box"] ;
1 -> 2 ;
3 [label="gini = 0.3126\nsamples = 490\nvalue = [ 395.   95.]", shape="box"] ;
1 -> 3 ;
4 [label="Smoothed RSSI <= -63.2522\ngini = 0.49536351166\nsamples = 270", shape="box"] ;
0 -> 4 ;
5 [label="gini = 0.4736\nsamples = 174\nvalue = [ 107.   67.]", shape="box"] ;
4 -> 5 ;
6 [label="gini = 0.2637\nsamples = 96\nvalue = [ 15.  81.]", shape="box"] ;
4 -> 6 ;
}