digraph Tree {
0 [label="X[1] <= -59.5000\ngini = 0.0700650066764\nsamples = 7647", shape="box"] ;
1 [label="X[1] <= -68.5000\ngini = 0.0458081205305\nsamples = 7504", shape="box"] ;
0 -> 1 ;
2 [label="gini = 0.0163\nsamples = 6824\nvalue = [ 6768.    56.]", shape="box"] ;
1 -> 2 ;
3 [label="gini = 0.2907\nsamples = 680\nvalue = [ 560.  120.]", shape="box"] ;
1 -> 3 ;
4 [label="X[0] <= -0.0648\ngini = 0.409017555871\nsamples = 143", shape="box"] ;
0 -> 4 ;
5 [label="gini = 0.3270\nsamples = 34\nvalue = [ 27.   7.]", shape="box"] ;
4 -> 5 ;
6 [label="gini = 0.2239\nsamples = 109\nvalue = [ 14.  95.]", shape="box"] ;
4 -> 6 ;
}