digraph Tree {
0 [label="RSSI <= -59.5000\ngini = 0.0657328225836\nsamples = 7818", shape="box"] ;
1 [label="RSSI <= -70.5000\ngini = 0.0420134908752\nsamples = 7686", shape="box"] ;
0 -> 1 ;
2 [label="gini = 0.0089\nsamples = 6728\nvalue = [ 6698.    30.]", shape="box"] ;
1 -> 2 ;
3 [label="gini = 0.2421\nsamples = 958\nvalue = [ 823.  135.]", shape="box"] ;
1 -> 3 ;
4 [label="Acceleration Magnitude <= -0.0659\ngini = 0.359389348026\nsamples = 132", shape="box"] ;
0 -> 4 ;
5 [label="gini = 0.3418\nsamples = 32\nvalue = [ 25.   7.]", shape="box"] ;
4 -> 5 ;
6 [label="gini = 0.1128\nsamples = 100\nvalue = [  6.  94.]", shape="box"] ;
4 -> 6 ;
}