digraph Tree {
0 [label="RSSI <= -61.5000\ngini = 0.0648587356809\nsamples = 7808", shape="box"] ;
1 [label="RSSI <= -70.5000\ngini = 0.0388721675823\nsamples = 7615", shape="box"] ;
0 -> 1 ;
2 [label="gini = 0.0092\nsamples = 6718\nvalue = [ 6687.    31.]", shape="box"] ;
1 -> 2 ;
3 [label="gini = 0.2318\nsamples = 897\nvalue = [ 777.  120.]", shape="box"] ;
1 -> 3 ;
4 [label="Acceleration Magnitude <= -0.0951\ngini = 0.488711106338\nsamples = 193", shape="box"] ;
0 -> 4 ;
5 [label="gini = 0.1855\nsamples = 29\nvalue = [ 26.   3.]", shape="box"] ;
4 -> 5 ;
6 [label="gini = 0.4497\nsamples = 164\nvalue = [  56.  108.]", shape="box"] ;
4 -> 6 ;
}